svm_type epsilon_svr
kernel_type rbf
gamma 0.0001
nr_class 2
total_sv 12
rho -25.7341
SV
-15251.98328521654 1:-1.4626 2:-25.4331 
31627.6837567155 1:-2.3627 2:-34.4319 
-31690.74671020723 1:-5.0629 2:-49.955 
14991.0725888023 1:-7.9881 2:-61.4286 
-14969.25464173452 1:-33.64 2:-56.8166 
16428.29242318719 1:-29.5897 2:-36.5692 
22212.73273450178 1:-37.4653 2:-42.6434 
7365.202818644883 1:-48.2661 2:-37.8065 
-15660.10664718629 1:-35.4401 2:-24.4207 
-102847.2276348035 1:-41.178 2:-22.6209 
88511.65910347634 1:-41.403 2:-19.2463 
-717.3245061804203 1:-72.1178 2:-27.5703 
