svm_type epsilon_svr
kernel_type rbf
gamma 0.0001
nr_class 2
total_sv 12
rho -0.691215
SV
6712.58079187629 1:-1.8001 2:-29.2576 
85.19049595114693 1:-5.0629 2:-49.955 
2134.872962575363 1:-7.9881 2:-61.4286 
-16888.71422051977 1:-17.6638 2:-39.6063 
-13065.85460461316 1:-10.0132 2:-25.2081 
7506.886393222767 1:-49.2786 2:-49.0551 
2722.473305852253 1:-58.9543 2:-41.9685 
-22249.39489487021 1:-48.2661 2:-37.8065 
62063.40915674106 1:-28.4646 2:-26.108 
-2443.343920777796 1:-69.4176 2:-31.5073 
-48977.22305357077 1:-36.6777 2:-20.7087 
22399.11758813292 1:-51.0788 2:-22.7334 
