svm_type nu_svr
kernel_type rbf
gamma 0.5
nr_class 2
total_sv 42
rho -5.00001
SV
-4.999442945714321 1:41.6281 2:-23.4083 
-4.999829322396057 1:36.3402 2:-25.2081 
-4.999797320651431 1:28.4646 2:-27.2328 
-4.999313712822352 1:20.589 2:-28.5827 
-4.9996815594308 1:13.051 2:-29.5951 
-4.999800394396096 1:3.7128 2:-30.1575 
-4.999286626733266 1:-5.5129 2:-29.9325 
-2.999310807356973 1:-6.7505 2:-34.7694 
-2.999230369459001 1:4.2753 2:-34.7694 
-2.999271523233008 1:15.4136 2:-33.8695 
-2.999291415565912 1:25.2019 2:-32.1822 
-2.999171586347768 1:33.64 2:-30.1575 
-2.998877805225937 1:40.953 2:-27.6828 
-2.999860009065486 1:46.916 2:-25.4331 
-0.9997318937546067 1:52.9914 2:-27.5703 
-0.9998807948036634 1:47.141 2:-30.4949 
-0.9996962251903414 1:39.6029 2:-33.8695 
-0.9992314932415421 1:30.8273 2:-37.1316 
-0.9998602903681466 1:18.7889 2:-40.0562 
-0.9998787555203638 1:5.4004 2:-41.5186 
-0.9997063437292292 1:-8.5506 2:-41.1811 
0.9996004528695636 1:-11.0258 2:-49.1676 
0.9995998623686516 1:7.4256 2:-49.5051 
0.9993442694916465 1:24.9768 2:-47.0304 
0.9995952434474074 1:38.4778 2:-42.7559 
0.9995946628562714 1:48.6036 2:-38.0315 
0.9995836258985638 1:55.6916 2:-33.6445 
0.9995954097708951 1:60.9795 2:-29.7075 
2.999333277685019 1:69.8676 2:-31.6198 
2.999403422957742 1:65.4798 2:-36.3442 
2.999542135832243 1:59.6294 2:-42.081 
2.999744232627799 1:50.1787 2:-48.9426 
2.999536811103184 1:34.315 2:-55.5793 
2.999375406821304 1:10.8008 2:-60.1912 
2.999612002475908 1:-16.5387 2:-59.6288 
4.999682147737276 1:-29.3647 2:-71.5523 
4.999343628832051 1:21.039 2:-73.2396 
4.999621544403465 1:54.229 2:-64.6907 
4.999637245901924 1:67.1674 2:-54.0045 
4.999309039143483 1:73.3554 2:-45.2306 
4.999339907131419 1:77.2932 2:-38.2565 
4.999756865650492 1:79.6559 2:-32.8571 
